<?xml version="1.0"?>
<opencv_storage>
<cascade>
  <stageType>BOOST</stageType>
  <featureType>HAAR</featureType>
  <height>20</height>
  <width>20</width>
  <stageParams>
    <boostType>GAB</boostType>
    <minHitRate>9.9500000476837158e-01</minHitRate>
    <maxFalseAlarm>5.0000000000000000e-01</maxFalseAlarm>
    <weightTrimRate>9.4999999999999996e-01</weightTrimRate>
    <maxDepth>1</maxDepth>
    <maxWeakCount>100</maxWeakCount></stageParams>
  <featureParams>
    <maxCatCount>0</maxCatCount>
    <featSize>1</featSize>
    <mode>BASIC</mode></featureParams>
  <stageNum>13</stageNum>
  <stages>
    <!-- stage 0 -->
    <_>
      <maxWeakCount>5</maxWeakCount>
      <stageThreshold>-1.2505549192428589e+00</stageThreshold>
      <weakClassifiers>
        <_>
          <internalNodes>
            0 -1 20 -5.9869468212127686e-02</internalNodes>
          <leafValues>
            8.0473375320434570e-01 -8.0812638998031616e-01</leafValues></_>
        <_>
          <internalNodes>
            0 -1 93 1.8042178824543953e-02</internalNodes>
          <leafValues>
            -7.8783786296844482e-01 6.0979372262954712e-01</leafValues></_>
        <_>
          <internalNodes>
            0 -1 8 2.4939987808465958e-02</internalNodes>
          <leafValues>
            -6.1808216571807861e-01 7.1097356081008911e-01</leafValues></_>
        <_>
          <internalNodes>
            0 -1 30 -1.4085844159126282e-02</internalNodes>
          <leafValues>
            5.2310651540756226e-01 -6.2205654382705688e-01</leafValues></_>
        <_>
          <internalNodes>
            0 -1 71 -6.0967551544308662e-03</internalNodes>
          <leafValues>
            4.4038501381874084e-01 -7.5116884708404541e-01</leafValues></_></weakClassifiers></_>
    <!-- stage 1 -->
    <_>
      <maxWeakCount>6</maxWeakCount>
      <stageThreshold>-1.4438289403915405e+00</stageThreshold>
      <weakClassifiers>
        <_>
          <internalNodes>
            0 -1 21 -9.1275930404663086e-02</internalNodes>
          <leafValues>
            6.6731899976730347e-01 -6.6287016868591309e-01</leafValues></_>
        <_>
          <internalNodes>
            0 -1 35 4.6419501304626465e-02</internalNodes>
          <leafValues>
            -5.1848840713500977e-01 7.1277314424514771e-01</leafValues></_>
        <_>
          <internalNodes>
            0 -1 42 -9.6382964402437210e-03</internalNodes>
          <leafValues>
            7.6132225990295410e-01 -4.8189806938171387e-01</leafValues></_>
        <_>
          <internalNodes>
            0 -1 97 -6.0745896771550179e-03</internalNodes>
          <leafValues>
            4.4858828186988831e-01 -8.2845866680145264e-01</leafValues></_>
        <_>
          <internalNodes>
            0 -1 28 -2.9183689504861832e-02</internalNodes>
          <leafValues>
            4.1869398951530457e-01 -6.1906063556671143e-01</leafValues></_>
        <_>
          <internalNodes>
            0 -1 85 7.3238899931311607e-03</internalNodes>
          <leafValues>
            -6.4469766616821289e-01 3.8990002870559692e-01</leafValues></_></weakClassifiers></_>
    <!-- stage 2 -->
    <_>
      <maxWeakCount>7</maxWeakCount>
      <stageThreshold>-1.0098432302474976e+00</stageThreshold>
      <weakClassifiers>
        <_>
          <internalNodes>
            0 -1 3 4.7427691519260406e-02</internalNodes>
          <leafValues>
            -5.0371748208999634e-01 7.7912622690200806e-01</leafValues></_>
        <_>
          <internalNodes>
            0 -1 40 -2.1534392610192299e-02</internalNodes>
          <leafValues>
            6.4925229549407959e-01 -4.4894966483116150e-01</leafValues></_>
        <_>
          <internalNodes>
            0 -1 57 4.6394458040595055e-03</internalNodes>
          <leafValues>
            -6.6947078704833984e-01 3.7688049674034119e-01</leafValues></_>
        <_>
          <internalNodes>
            0 -1 27 3.7561200559139252e-02</internalNodes>
          <leafValues>
            -4.5519548654556274e-01 6.1431032419204712e-01</leafValues></_>
        <_>
          <internalNodes>
            0 -1 16 -4.6759828925132751e-02</internalNodes>
          <leafValues>
            4.9291071295738220e-01 -5.1361507177352905e-01</leafValues></_>
        <_>
          <internalNodes>
            0 -1 55 -1.0398110374808311e-02</internalNodes>
          <leafValues>
            3.0912673473358154e-01 -7.9669082164764404e-01</leafValues></_>
        <_>
          <internalNodes>
            0 -1 94 3.8050408475100994e-03</internalNodes>
          <leafValues>
            -8.3274930715560913e-01 2.7512192726135254e-01</leafValues></_></weakClassifiers></_>
    <!-- stage 3 -->
    <_>
      <maxWeakCount>8</maxWeakCount>
      <stageThreshold>-1.1391170024871826e+00</stageThreshold>
      <weakClassifiers>
        <_>
          <internalNodes>
            0 -1 19 -3.9528049528598785e-02</internalNodes>
          <leafValues>
            6.7447048425674438e-01 -5.0348955392837524e-01</leafValues></_>
        <_>
          <internalNodes>
            0 -1 33 -9.6922367811203003e-03</internalNodes>
          <leafValues>
            6.1998641490936279e-01 -4.7876319289207458e-01</leafValues></_>
        <_>
          <internalNodes>
            0 -1 62 -2.7434021234512329e-02</internalNodes>
          <leafValues>
            4.6098262071609497e-01 -6.3545334339141846e-01</leafValues></_>
        <_>
          <internalNodes>
            0 -1 60 3.2106693834066391e-02</internalNodes>
          <leafValues>
            -6.5204453468322754e-01 3.7327229976654053e-01</leafValues></_>
        <_>
          <internalNodes>
            0 -1 36 4.1624218225479126e-02</internalNodes>
          <leafValues>
            -4.0226775407791138e-01 5.5973798036575317e-01</leafValues></_>
        <_>
          <internalNodes>
            0 -1 102 2.7473725378513336e-02</internalNodes>
          <leafValues>
            1.6625465452671051e-01 -9.7427177429199219e-01</leafValues></_>
        <_>
          <internalNodes>
            0 -1 49 2.0778672769665718e-03</internalNodes>
          <leafValues>
            -9.1829389333724976e-01 1.3470387458801270e-01</leafValues></_>
        <_>
          <internalNodes>
            0 -1 23 2.3591313511133194e-02</internalNodes>
          <leafValues>
            2.0662601292133331e-01 -8.1624615192413330e-01</leafValues></_></weakClassifiers></_>
    <!-- stage 4 -->
    <_>
      <maxWeakCount>9</maxWeakCount>
      <stageThreshold>-1.1328473091125488e+00</stageThreshold>
      <weakClassifiers>
        <_>
          <internalNodes>
            0 -1 68 -1.7689581960439682e-02</internalNodes>
          <leafValues>
            5.4661792516708374e-01 -6.1786597967147827e-01</leafValues></_>
        <_>
          <internalNodes>
            0 -1 44 3.3985853195190430e-02</internalNodes>
          <leafValues>
            -5.5729633569717407e-01 4.5806092023849487e-01</leafValues></_>
        <_>
          <internalNodes>
            0 -1 2 8.4806740283966064e-02</internalNodes>
          <leafValues>
            -5.4290950298309326e-01 4.8993444442749023e-01</leafValues></_>
        <_>
          <internalNodes>
            0 -1 109 1.3573905453085899e-02</internalNodes>
          <leafValues>
            -2.7328968048095703e-01 7.3197072744369507e-01</leafValues></_>
        <_>
          <internalNodes>
            0 -1 52 -9.8489616066217422e-03</internalNodes>
          <leafValues>
            4.6967563033103943e-01 -4.3228167295455933e-01</leafValues></_>
        <_>
          <internalNodes>
            0 -1 65 6.5800636075437069e-03</internalNodes>
          <leafValues>
            -8.3654475212097168e-01 2.6741859316825867e-01</leafValues></_>
        <_>
          <internalNodes>
            0 -1 70 1.1723499745130539e-02</internalNodes>
          <leafValues>
            2.1536508202552795e-01 -8.5029292106628418e-01</leafValues></_>
        <_>
          <internalNodes>
            0 -1 15 -3.9130650460720062e-02</internalNodes>
          <leafValues>
            6.8676763772964478e-01 -3.2030779123306274e-01</leafValues></_>
        <_>
          <internalNodes>
            0 -1 66 9.5716807991266251e-03</internalNodes>
          <leafValues>
            -7.1740239858627319e-01 2.5917673110961914e-01</leafValues></_></weakClassifiers></_>
    <!-- stage 5 -->
    <_>
      <maxWeakCount>8</maxWeakCount>
      <stageThreshold>-9.8354929685592651e-01</stageThreshold>
      <weakClassifiers>
        <_>
          <internalNodes>
            0 -1 37 -3.6487191915512085e-02</internalNodes>
          <leafValues>
            5.4915589094161987e-01 -5.0727885961532593e-01</leafValues></_>
        <_>
          <internalNodes>
            0 -1 22 -5.0345160067081451e-02</internalNodes>
          <leafValues>
            4.5552325248718262e-01 -4.5623514056205750e-01</leafValues></_>
        <_>
          <internalNodes>
            0 -1 46 3.5520285367965698e-02</internalNodes>
          <leafValues>
            -4.6531671285629272e-01 4.9051964282989502e-01</leafValues></_>
        <_>
          <internalNodes>
            0 -1 92 2.8040034230798483e-03</internalNodes>
          <leafValues>
            -6.5106749534606934e-01 2.8454300761222839e-01</leafValues></_>
        <_>
          <internalNodes>
            0 -1 86 8.0838333815336227e-03</internalNodes>
          <leafValues>
            -6.4592593908309937e-01 2.6610738039016724e-01</leafValues></_>
        <_>
          <internalNodes>
            0 -1 51 -1.0660717263817787e-02</internalNodes>
          <leafValues>
            4.7134751081466675e-01 -3.8848167657852173e-01</leafValues></_>
        <_>
          <internalNodes>
            0 -1 54 1.3789907097816467e-02</internalNodes>
          <leafValues>
            2.0620936155319214e-01 -8.5335636138916016e-01</leafValues></_>
        <_>
          <internalNodes>
            0 -1 31 -1.2592182029038668e-03</internalNodes>
          <leafValues>
            2.1716599166393280e-01 -6.7919653654098511e-01</leafValues></_></weakClassifiers></_>
    <!-- stage 6 -->
    <_>
      <maxWeakCount>10</maxWeakCount>
      <stageThreshold>-1.3126199245452881e+00</stageThreshold>
      <weakClassifiers>
        <_>
          <internalNodes>
            0 -1 4 4.9067590385675430e-02</internalNodes>
          <leafValues>
            -4.1838648915290833e-01 6.5467625856399536e-01</leafValues></_>
        <_>
          <internalNodes>
            0 -1 64 1.6367971897125244e-02</internalNodes>
          <leafValues>
            -7.8468883037567139e-01 2.9558080434799194e-01</leafValues></_>
        <_>
          <internalNodes>
            0 -1 89 -1.7047941684722900e-02</internalNodes>
          <leafValues>
            5.3212887048721313e-01 -3.7074264883995056e-01</leafValues></_>
        <_>
          <internalNodes>
            0 -1 75 1.1212259996682405e-03</internalNodes>
          <leafValues>
            -8.2574421167373657e-01 2.3747704923152924e-01</leafValues></_>
        <_>
          <internalNodes>
            0 -1 45 3.6608181893825531e-02</internalNodes>
          <leafValues>
            -5.4212009906768799e-01 2.7042531967163086e-01</leafValues></_>
        <_>
          <internalNodes>
            0 -1 84 5.7122791185975075e-03</internalNodes>
          <leafValues>
            1.6439655423164368e-01 -8.0943387746810913e-01</leafValues></_>
        <_>
          <internalNodes>
            0 -1 69 1.0750295594334602e-02</internalNodes>
          <leafValues>
            -2.7680483460426331e-01 5.8799356222152710e-01</leafValues></_>
        <_>
          <internalNodes>
            0 -1 106 1.3967592269182205e-02</internalNodes>
          <leafValues>
            2.0727278292179108e-01 -9.2293047904968262e-01</leafValues></_>
        <_>
          <internalNodes>
            0 -1 101 1.0533444583415985e-03</internalNodes>
          <leafValues>
            -5.3531122207641602e-01 2.2903585433959961e-01</leafValues></_>
        <_>
          <internalNodes>
            0 -1 104 5.0726747140288353e-03</internalNodes>
          <leafValues>
            1.7669402062892914e-01 -8.7059760093688965e-01</leafValues></_></weakClassifiers></_>
    <!-- stage 7 -->
    <_>
      <maxWeakCount>9</maxWeakCount>
      <stageThreshold>-1.2630603313446045e+00</stageThreshold>
      <weakClassifiers>
        <_>
          <internalNodes>
            0 -1 13 3.0388284474611282e-02</internalNodes>
          <leafValues>
            -4.1306531429290771e-01 5.6464087963104248e-01</leafValues></_>
        <_>
          <internalNodes>
            0 -1 93 2.1297633647918701e-02</internalNodes>
          <leafValues>
            -7.1656143665313721e-01 3.0865520238876343e-01</leafValues></_>
        <_>
          <internalNodes>
            0 -1 111 -1.3541616499423981e-02</internalNodes>
          <leafValues>
            6.4549815654754639e-01 -3.2828074693679810e-01</leafValues></_>
        <_>
          <internalNodes>
            0 -1 59 2.9189609922468662e-03</internalNodes>
          <leafValues>
            -5.5789840221405029e-01 3.2254981994628906e-01</leafValues></_>
        <_>
          <internalNodes>
            0 -1 90 6.1010628938674927e-02</internalNodes>
          <leafValues>
            1.8939581513404846e-01 -8.6577159166336060e-01</leafValues></_>
        <_>
          <internalNodes>
            0 -1 41 1.8369330093264580e-02</internalNodes>
          <leafValues>
            -3.3444482088088989e-01 5.7145798206329346e-01</leafValues></_>
        <_>
          <internalNodes>
            0 -1 25 -2.3346517235040665e-02</internalNodes>
          <leafValues>
            5.6837922334671021e-01 -2.8506255149841309e-01</leafValues></_>
        <_>
          <internalNodes>
            0 -1 96 7.5450679287314415e-03</internalNodes>
          <leafValues>
            1.5690082311630249e-01 -8.5561352968215942e-01</leafValues></_>
        <_>
          <internalNodes>
            0 -1 81 1.5985069796442986e-02</internalNodes>
          <leafValues>
            1.2005350738763809e-01 -9.4943213462829590e-01</leafValues></_></weakClassifiers></_>
    <!-- stage 8 -->
    <_>
      <maxWeakCount>10</maxWeakCount>
      <stageThreshold>-1.3707779645919800e+00</stageThreshold>
      <weakClassifiers>
        <_>
          <internalNodes>
            0 -1 5 6.9219835102558136e-02</internalNodes>
          <leafValues>
            -3.2640692591667175e-01 6.4026844501495361e-01</leafValues></_>
        <_>
          <internalNodes>
            0 -1 67 1.7589604249224067e-03</internalNodes>
          <leafValues>
            -7.0964545011520386e-01 2.8380039334297180e-01</leafValues></_>
        <_>
          <internalNodes>
            0 -1 78 1.5007246285676956e-02</internalNodes>
          <leafValues>
            -6.4176464080810547e-01 2.4476301670074463e-01</leafValues></_>
        <_>
          <internalNodes>
            0 -1 26 3.0781930312514305e-02</internalNodes>
          <leafValues>
            -3.7812599539756775e-01 4.7930788993835449e-01</leafValues></_>
        <_>
          <internalNodes>
            0 -1 105 -2.8070562984794378e-04</internalNodes>
          <leafValues>
            1.7506667971611023e-01 -8.3864212036132812e-01</leafValues></_>
        <_>
          <internalNodes>
            0 -1 29 -2.5579715147614479e-03</internalNodes>
          <leafValues>
            3.4828770160675049e-01 -4.2572990059852600e-01</leafValues></_>
        <_>
          <internalNodes>
            0 -1 34 -1.1997193098068237e-02</internalNodes>
          <leafValues>
            3.5630765557289124e-01 -4.5006757974624634e-01</leafValues></_>
        <_>
          <internalNodes>
            0 -1 73 1.2135013937950134e-02</internalNodes>
          <leafValues>
            1.6954888403415680e-01 -9.6102464199066162e-01</leafValues></_>
        <_>
          <internalNodes>
            0 -1 48 -1.0777400434017181e-01</internalNodes>
          <leafValues>
            -8.6681348085403442e-01 1.1533594876527786e-01</leafValues></_>
        <_>
          <internalNodes>
            0 -1 79 -4.5591541565954685e-03</internalNodes>
          <leafValues>
            -9.2934006452560425e-01 1.0756516456604004e-01</leafValues></_></weakClassifiers></_>
    <!-- stage 9 -->
    <_>
      <maxWeakCount>10</maxWeakCount>
      <stageThreshold>-1.1591835021972656e+00</stageThreshold>
      <weakClassifiers>
        <_>
          <internalNodes>
            0 -1 7 3.2690104097127914e-02</internalNodes>
          <leafValues>
            -4.5770567655563354e-01 4.7733846306800842e-01</leafValues></_>
        <_>
          <internalNodes>
            0 -1 12 -9.3286880291998386e-04</internalNodes>
          <leafValues>
            3.8412159681320190e-01 -4.9845355749130249e-01</leafValues></_>
        <_>
          <internalNodes>
            0 -1 38 -2.5823293253779411e-02</internalNodes>
          <leafValues>
            4.4169718027114868e-01 -3.4759593009948730e-01</leafValues></_>
        <_>
          <internalNodes>
            0 -1 95 -4.9085391219705343e-04</internalNodes>
          <leafValues>
            -7.5581997632980347e-01 2.4826997518539429e-01</leafValues></_>
        <_>
          <internalNodes>
            0 -1 24 2.1303579211235046e-02</internalNodes>
          <leafValues>
            -3.7114855647087097e-01 4.1988906264305115e-01</leafValues></_>
        <_>
          <internalNodes>
            0 -1 50 7.1660019457340240e-03</internalNodes>
          <leafValues>
            1.6874799132347107e-01 -7.8765392303466797e-01</leafValues></_>
        <_>
          <internalNodes>
            0 -1 58 6.8161236122250557e-03</internalNodes>
          <leafValues>
            -3.0976983904838562e-01 4.8915219306945801e-01</leafValues></_>
        <_>
          <internalNodes>
            0 -1 14 6.9635190069675446e-02</internalNodes>
          <leafValues>
            -2.0966568589210510e-01 7.3892045021057129e-01</leafValues></_>
        <_>
          <internalNodes>
            0 -1 32 -7.3133157566189766e-03</internalNodes>
          <leafValues>
            5.6619143486022949e-01 -2.5220525264739990e-01</leafValues></_>
        <_>
          <internalNodes>
            0 -1 39 2.1362308412790298e-02</internalNodes>
          <leafValues>
            1.4524772763252258e-01 -8.6104005575180054e-01</leafValues></_></weakClassifiers></_>
    <!-- stage 10 -->
    <_>
      <maxWeakCount>12</maxWeakCount>
      <stageThreshold>-1.0236463546752930e+00</stageThreshold>
      <weakClassifiers>
        <_>
          <internalNodes>
            0 -1 107 3.6226373165845871e-02</internalNodes>
          <leafValues>
            -2.9512402415275574e-01 6.0875511169433594e-01</leafValues></_>
        <_>
          <internalNodes>
            0 -1 77 5.5996528826653957e-03</internalNodes>
          <leafValues>
            -6.8631136417388916e-01 2.9651603102684021e-01</leafValues></_>
        <_>
          <internalNodes>
            0 -1 74 4.3779229745268822e-03</internalNodes>
          <leafValues>
            2.2528377175331116e-01 -6.8645006418228149e-01</leafValues></_>
        <_>
          <internalNodes>
            0 -1 10 -4.0562178939580917e-02</internalNodes>
          <leafValues>
            5.6806451082229614e-01 -2.7591714262962341e-01</leafValues></_>
        <_>
          <internalNodes>
            0 -1 1 9.0192720293998718e-02</internalNodes>
          <leafValues>
            -2.9877513647079468e-01 4.8428177833557129e-01</leafValues></_>
        <_>
          <internalNodes>
            0 -1 72 -1.7476053908467293e-02</internalNodes>
          <leafValues>
            2.6351895928382874e-01 -5.5411648750305176e-01</leafValues></_>
        <_>
          <internalNodes>
            0 -1 98 -1.4123071450740099e-03</internalNodes>
          <leafValues>
            2.2590272128582001e-01 -6.5277004241943359e-01</leafValues></_>
        <_>
          <internalNodes>
            0 -1 0 3.5507731139659882e-02</internalNodes>
          <leafValues>
            -4.2304962873458862e-01 2.6405876874923706e-01</leafValues></_>
        <_>
          <internalNodes>
            0 -1 83 3.1733157811686397e-04</internalNodes>
          <leafValues>
            -8.6142832040786743e-01 1.2807668745517731e-01</leafValues></_>
        <_>
          <internalNodes>
            0 -1 53 -1.2009046040475368e-02</internalNodes>
          <leafValues>
            3.8127830624580383e-01 -3.1910750269889832e-01</leafValues></_>
        <_>
          <internalNodes>
            0 -1 9 1.5052688121795654e-01</internalNodes>
          <leafValues>
            1.6689421236515045e-01 -8.9293456077575684e-01</leafValues></_>
        <_>
          <internalNodes>
            0 -1 110 4.4733094982802868e-03</internalNodes>
          <leafValues>
            -2.9821905493736267e-01 4.8854932188987732e-01</leafValues></_></weakClassifiers></_>
    <!-- stage 11 -->
    <_>
      <maxWeakCount>9</maxWeakCount>
      <stageThreshold>-9.1158354282379150e-01</stageThreshold>
      <weakClassifiers>
        <_>
          <internalNodes>
            0 -1 11 -1.0802246630191803e-01</internalNodes>
          <leafValues>
            5.3793102502822876e-01 -3.5728156566619873e-01</leafValues></_>
        <_>
          <internalNodes>
            0 -1 6 -1.3119425624608994e-02</internalNodes>
          <leafValues>
            4.1417056322097778e-01 -3.8356542587280273e-01</leafValues></_>
        <_>
          <internalNodes>
            0 -1 100 1.2179986806586385e-03</internalNodes>
          <leafValues>
            -5.3809005022048950e-01 2.8275144100189209e-01</leafValues></_>
        <_>
          <internalNodes>
            0 -1 91 -4.1593611240386963e-03</internalNodes>
          <leafValues>
            -7.7380955219268799e-01 2.2185255587100983e-01</leafValues></_>
        <_>
          <internalNodes>
            0 -1 61 5.0193175673484802e-02</internalNodes>
          <leafValues>
            -3.5738036036491394e-01 4.0201982855796814e-01</leafValues></_>
        <_>
          <internalNodes>
            0 -1 108 -2.5909196119755507e-03</internalNodes>
          <leafValues>
            2.1935765445232391e-01 -5.9920340776443481e-01</leafValues></_>
        <_>
          <internalNodes>
            0 -1 88 -5.7114372029900551e-03</internalNodes>
          <leafValues>
            -8.0063897371292114e-01 1.7700360715389252e-01</leafValues></_>
        <_>
          <internalNodes>
            0 -1 80 1.2983776628971100e-02</internalNodes>
          <leafValues>
            -5.7859134674072266e-01 2.0592342317104340e-01</leafValues></_>
        <_>
          <internalNodes>
            0 -1 99 1.8035292625427246e-02</internalNodes>
          <leafValues>
            1.3966406881809235e-01 -8.3565306663513184e-01</leafValues></_></weakClassifiers></_>
    <!-- stage 12 -->
    <_>
      <maxWeakCount>10</maxWeakCount>
      <stageThreshold>-1.1944324970245361e+00</stageThreshold>
      <weakClassifiers>
        <_>
          <internalNodes>
            0 -1 17 -8.9174099266529083e-02</internalNodes>
          <leafValues>
            3.6442688107490540e-01 -5.6850391626358032e-01</leafValues></_>
        <_>
          <internalNodes>
            0 -1 103 -1.7007680435199291e-04</internalNodes>
          <leafValues>
            -5.2891063690185547e-01 3.1544017791748047e-01</leafValues></_>
        <_>
          <internalNodes>
            0 -1 76 1.7755657434463501e-02</internalNodes>
          <leafValues>
            1.8162228167057037e-01 -8.6057311296463013e-01</leafValues></_>
        <_>
          <internalNodes>
            0 -1 18 1.3094050809741020e-02</internalNodes>
          <leafValues>
            -4.4230759143829346e-01 3.9408627152442932e-01</leafValues></_>
        <_>
          <internalNodes>
            0 -1 82 4.9379160627722740e-03</internalNodes>
          <leafValues>
            -8.6971300840377808e-01 1.6952836513519287e-01</leafValues></_>
        <_>
          <internalNodes>
            0 -1 87 9.4123333692550659e-03</internalNodes>
          <leafValues>
            9.3294851481914520e-02 -9.0412878990173340e-01</leafValues></_>
        <_>
          <internalNodes>
            0 -1 43 -1.2196660041809082e-02</internalNodes>
          <leafValues>
            3.4459301829338074e-01 -4.1164007782936096e-01</leafValues></_>
        <_>
          <internalNodes>
            0 -1 63 5.5031990632414818e-03</internalNodes>
          <leafValues>
            1.4938478171825409e-01 -8.6824458837509155e-01</leafValues></_>
        <_>
          <internalNodes>
            0 -1 56 1.3371354434639215e-03</internalNodes>
          <leafValues>
            1.9538186490535736e-01 -6.8408143520355225e-01</leafValues></_>
        <_>
          <internalNodes>
            0 -1 47 -3.4142732620239258e-02</internalNodes>
          <leafValues>
            -8.5909044742584229e-01 1.2079040706157684e-01</leafValues></_></weakClassifiers></_></stages>
  <features>
    <_>
      <rects>
        <_>
          0 0 16 4 -1.</_>
        <_>
          0 2 16 2 2.</_></rects>
      <tilted>0</tilted></_>
    <_>
      <rects>
        <_>
          0 2 6 15 -1.</_>
        <_>
          3 2 3 15 2.</_></rects>
      <tilted>0</tilted></_>
    <_>
      <rects>
        <_>
          0 2 9 15 -1.</_>
        <_>
          3 2 3 15 3.</_></rects>
      <tilted>0</tilted></_>
    <_>
      <rects>
        <_>
          0 3 4 14 -1.</_>
        <_>
          2 3 2 14 2.</_></rects>
      <tilted>0</tilted></_>
    <_>
      <rects>
        <_>
          0 5 4 11 -1.</_>
        <_>
          2 5 2 11 2.</_></rects>
      <tilted>0</tilted></_>
    <_>
      <rects>
        <_>
          0 7 6 7 -1.</_>
        <_>
          2 7 2 7 3.</_></rects>
      <tilted>0</tilted></_>
    <_>
      <rects>
        <_>
          0 18 16 2 -1.</_>
        <_>
          0 19 16 1 2.</_></rects>
      <tilted>0</tilted></_>
    <_>
      <rects>
        <_>
          1 10 6 5 -1.</_>
        <_>
          3 10 2 5 3.</_></rects>
      <tilted>0</tilted></_>
    <_>
      <rects>
        <_>
          2 0 14 4 -1.</_>
        <_>
          2 2 14 2 2.</_></rects>
      <tilted>0</tilted></_>
    <_>
      <rects>
        <_>
          2 4 16 11 -1.</_>
        <_>
          10 4 8 11 2.</_></rects>
      <tilted>0</tilted></_>
    <_>
      <rects>
        <_>
          2 6 4 7 -1.</_>
        <_>
          4 6 2 7 2.</_></rects>
      <tilted>0</tilted></_>
    <_>
      <rects>
        <_>
          2 6 9 8 -1.</_>
        <_>
          5 6 3 8 3.</_></rects>
      <tilted>0</tilted></_>
    <_>
      <rects>
        <_>
          2 7 3 2 -1.</_>
        <_>
          2 8 3 1 2.</_></rects>
      <tilted>0</tilted></_>
    <_>
      <rects>
        <_>
          2 12 6 8 -1.</_>
        <_>
          2 12 3 4 2.</_>
        <_>
          5 16 3 4 2.</_></rects>
      <tilted>0</tilted></_>
    <_>
      <rects>
        <_>
          2 12 9 5 -1.</_>
        <_>
          5 12 3 5 3.</_></rects>
      <tilted>0</tilted></_>
    <_>
      <rects>
        <_>
          2 13 6 3 -1.</_>
        <_>
          5 13 3 3 2.</_></rects>
      <tilted>0</tilted></_>
    <_>
      <rects>
        <_>
          3 5 6 9 -1.</_>
        <_>
          6 5 3 9 2.</_></rects>
      <tilted>0</tilted></_>
    <_>
      <rects>
        <_>
          3 5 9 9 -1.</_>
        <_>
          6 5 3 9 3.</_></rects>
      <tilted>0</tilted></_>
    <_>
      <rects>
        <_>
          3 5 8 6 -1.</_>
        <_>
          3 5 4 3 2.</_>
        <_>
          7 8 4 3 2.</_></rects>
      <tilted>0</tilted></_>
    <_>
      <rects>
        <_>
          3 6 4 8 -1.</_>
        <_>
          5 6 2 8 2.</_></rects>
      <tilted>0</tilted></_>
    <_>
      <rects>
        <_>
          3 6 9 8 -1.</_>
        <_>
          6 6 3 8 3.</_></rects>
      <tilted>0</tilted></_>
    <_>
      <rects>
        <_>
          3 6 9 9 -1.</_>
        <_>
          6 6 3 9 3.</_></rects>
      <tilted>0</tilted></_>
    <_>
      <rects>
        <_>
          3 11 9 4 -1.</_>
        <_>
          6 11 3 4 3.</_></rects>
      <tilted>0</tilted></_>
    <_>
      <rects>
        <_>
          3 12 14 4 -1.</_>
        <_>
          10 12 7 4 2.</_></rects>
      <tilted>0</tilted></_>
    <_>
      <rects>
        <_>
          3 15 8 4 -1.</_>
        <_>
          3 15 4 2 2.</_>
        <_>
          7 17 4 2 2.</_></rects>
      <tilted>0</tilted></_>
    <_>
      <rects>
        <_>
          3 16 15 1 -1.</_>
        <_>
          8 16 5 1 3.</_></rects>
      <tilted>0</tilted></_>
    <_>
      <rects>
        <_>
          4 0 8 4 -1.</_>
        <_>
          4 2 8 2 2.</_></rects>
      <tilted>0</tilted></_>
    <_>
      <rects>
        <_>
          4 0 11 4 -1.</_>
        <_>
          4 2 11 2 2.</_></rects>
      <tilted>0</tilted></_>
    <_>
      <rects>
        <_>
          4 3 7 6 -1.</_>
        <_>
          4 6 7 3 2.</_></rects>
      <tilted>0</tilted></_>
    <_>
      <rects>
        <_>
          4 4 8 1 -1.</_>
        <_>
          8 4 4 1 2.</_></rects>
      <tilted>0</tilted></_>
    <_>
      <rects>
        <_>
          4 5 9 3 -1.</_>
        <_>
          7 5 3 3 3.</_></rects>
      <tilted>0</tilted></_>
    <_>
      <rects>
        <_>
          4 6 6 1 -1.</_>
        <_>
          7 6 3 1 2.</_></rects>
      <tilted>0</tilted></_>
    <_>
      <rects>
        <_>
          4 14 4 1 -1.</_>
        <_>
          6 14 2 1 2.</_></rects>
      <tilted>0</tilted></_>
    <_>
      <rects>
        <_>
          4 18 11 2 -1.</_>
        <_>
          4 19 11 1 2.</_></rects>
      <tilted>0</tilted></_>
    <_>
      <rects>
        <_>
          4 18 14 2 -1.</_>
        <_>
          4 19 14 1 2.</_></rects>
      <tilted>0</tilted></_>
    <_>
      <rects>
        <_>
          5 0 11 6 -1.</_>
        <_>
          5 2 11 2 3.</_></rects>
      <tilted>0</tilted></_>
    <_>
      <rects>
        <_>
          5 0 15 4 -1.</_>
        <_>
          5 2 15 2 2.</_></rects>
      <tilted>0</tilted></_>
    <_>
      <rects>
        <_>
          5 2 2 15 -1.</_>
        <_>
          5 7 2 5 3.</_></rects>
      <tilted>0</tilted></_>
    <_>
      <rects>
        <_>
          5 4 6 6 -1.</_>
        <_>
          5 6 6 2 3.</_></rects>
      <tilted>0</tilted></_>
    <_>
      <rects>
        <_>
          5 9 12 1 -1.</_>
        <_>
          11 9 6 1 2.</_></rects>
      <tilted>0</tilted></_>
    <_>
      <rects>
        <_>
          5 11 6 6 -1.</_>
        <_>
          5 11 3 3 2.</_>
        <_>
          8 14 3 3 2.</_></rects>
      <tilted>0</tilted></_>
    <_>
      <rects>
        <_>
          5 14 6 4 -1.</_>
        <_>
          5 14 3 2 2.</_>
        <_>
          8 16 3 2 2.</_></rects>
      <tilted>0</tilted></_>
    <_>
      <rects>
        <_>
          5 18 9 2 -1.</_>
        <_>
          5 19 9 1 2.</_></rects>
      <tilted>0</tilted></_>
    <_>
      <rects>
        <_>
          5 18 10 2 -1.</_>
        <_>
          5 19 10 1 2.</_></rects>
      <tilted>0</tilted></_>
    <_>
      <rects>
        <_>
          6 0 8 6 -1.</_>
        <_>
          6 2 8 2 3.</_></rects>
      <tilted>0</tilted></_>
    <_>
      <rects>
        <_>
          6 0 10 6 -1.</_>
        <_>
          6 2 10 2 3.</_></rects>
      <tilted>0</tilted></_>
    <_>
      <rects>
        <_>
          6 0 13 4 -1.</_>
        <_>
          6 2 13 2 2.</_></rects>
      <tilted>0</tilted></_>
    <_>
      <rects>
        <_>
          6 2 6 6 -1.</_>
        <_>
          8 2 2 6 3.</_></rects>
      <tilted>0</tilted></_>
    <_>
      <rects>
        <_>
          6 4 9 14 -1.</_>
        <_>
          6 11 9 7 2.</_></rects>
      <tilted>0</tilted></_>
    <_>
      <rects>
        <_>
          6 8 10 3 -1.</_>
        <_>
          11 8 5 3 2.</_></rects>
      <tilted>0</tilted></_>
    <_>
      <rects>
        <_>
          6 8 10 6 -1.</_>
        <_>
          6 8 5 3 2.</_>
        <_>
          11 11 5 3 2.</_></rects>
      <tilted>0</tilted></_>
    <_>
      <rects>
        <_>
          6 18 8 2 -1.</_>
        <_>
          6 19 8 1 2.</_></rects>
      <tilted>0</tilted></_>
    <_>
      <rects>
        <_>
          6 18 10 2 -1.</_>
        <_>
          6 19 10 1 2.</_></rects>
      <tilted>0</tilted></_>
    <_>
      <rects>
        <_>
          7 1 9 4 -1.</_>
        <_>
          10 1 3 4 3.</_></rects>
      <tilted>0</tilted></_>
    <_>
      <rects>
        <_>
          7 2 9 10 -1.</_>
        <_>
          7 7 9 5 2.</_></rects>
      <tilted>0</tilted></_>
    <_>
      <rects>
        <_>
          7 2 10 14 -1.</_>
        <_>
          7 9 10 7 2.</_></rects>
      <tilted>0</tilted></_>
    <_>
      <rects>
        <_>
          7 4 3 4 -1.</_>
        <_>
          8 4 1 4 3.</_></rects>
      <tilted>0</tilted></_>
    <_>
      <rects>
        <_>
          7 7 10 1 -1.</_>
        <_>
          12 7 5 1 2.</_></rects>
      <tilted>0</tilted></_>
    <_>
      <rects>
        <_>
          7 9 2 5 -1.</_>
        <_>
          8 9 1 5 2.</_></rects>
      <tilted>0</tilted></_>
    <_>
      <rects>
        <_>
          7 9 4 1 -1.</_>
        <_>
          9 9 2 1 2.</_></rects>
      <tilted>0</tilted></_>
    <_>
      <rects>
        <_>
          7 9 9 5 -1.</_>
        <_>
          10 9 3 5 3.</_></rects>
      <tilted>0</tilted></_>
    <_>
      <rects>
        <_>
          8 0 6 6 -1.</_>
        <_>
          8 2 6 2 3.</_></rects>
      <tilted>0</tilted></_>
    <_>
      <rects>
        <_>
          8 2 6 9 -1.</_>
        <_>
          8 5 6 3 3.</_></rects>
      <tilted>0</tilted></_>
    <_>
      <rects>
        <_>
          8 3 2 5 -1.</_>
        <_>
          9 3 1 5 2.</_></rects>
      <tilted>0</tilted></_>
    <_>
      <rects>
        <_>
          8 6 8 9 -1.</_>
        <_>
          8 9 8 3 3.</_></rects>
      <tilted>0</tilted></_>
    <_>
      <rects>
        <_>
          8 7 4 5 -1.</_>
        <_>
          10 7 2 5 2.</_></rects>
      <tilted>0</tilted></_>
    <_>
      <rects>
        <_>
          8 7 11 9 -1.</_>
        <_>
          8 10 11 3 3.</_></rects>
      <tilted>0</tilted></_>
    <_>
      <rects>
        <_>
          8 9 2 3 -1.</_>
        <_>
          9 9 1 3 2.</_></rects>
      <tilted>0</tilted></_>
    <_>
      <rects>
        <_>
          8 12 6 4 -1.</_>
        <_>
          8 14 6 2 2.</_></rects>
      <tilted>0</tilted></_>
    <_>
      <rects>
        <_>
          8 16 4 3 -1.</_>
        <_>
          8 17 4 1 3.</_></rects>
      <tilted>0</tilted></_>
    <_>
      <rects>
        <_>
          9 1 3 18 -1.</_>
        <_>
          10 1 1 18 3.</_></rects>
      <tilted>0</tilted></_>
    <_>
      <rects>
        <_>
          9 2 3 6 -1.</_>
        <_>
          9 5 3 3 2.</_></rects>
      <tilted>0</tilted></_>
    <_>
      <rects>
        <_>
          9 2 5 9 -1.</_>
        <_>
          9 5 5 3 3.</_></rects>
      <tilted>0</tilted></_>
    <_>
      <rects>
        <_>
          9 4 1 12 -1.</_>
        <_>
          9 10 1 6 2.</_></rects>
      <tilted>0</tilted></_>
    <_>
      <rects>
        <_>
          9 4 1 14 -1.</_>
        <_>
          9 11 1 7 2.</_></rects>
      <tilted>0</tilted></_>
    <_>
      <rects>
        <_>
          9 4 2 9 -1.</_>
        <_>
          10 4 1 9 2.</_></rects>
      <tilted>0</tilted></_>
    <_>
      <rects>
        <_>
          9 4 4 4 -1.</_>
        <_>
          11 4 2 4 2.</_></rects>
      <tilted>0</tilted></_>
    <_>
      <rects>
        <_>
          9 5 4 4 -1.</_>
        <_>
          11 5 2 4 2.</_></rects>
      <tilted>0</tilted></_>
    <_>
      <rects>
        <_>
          9 5 6 10 -1.</_>
        <_>
          11 5 2 10 3.</_></rects>
      <tilted>0</tilted></_>
    <_>
      <rects>
        <_>
          9 7 3 5 -1.</_>
        <_>
          10 7 1 5 3.</_></rects>
      <tilted>0</tilted></_>
    <_>
      <rects>
        <_>
          9 7 2 9 -1.</_>
        <_>
          9 10 2 3 3.</_></rects>
      <tilted>0</tilted></_>
    <_>
      <rects>
        <_>
          9 8 2 6 -1.</_>
        <_>
          9 10 2 2 3.</_></rects>
      <tilted>0</tilted></_>
    <_>
      <rects>
        <_>
          9 8 7 6 -1.</_>
        <_>
          9 10 7 2 3.</_></rects>
      <tilted>0</tilted></_>
    <_>
      <rects>
        <_>
          9 9 2 3 -1.</_>
        <_>
          10 9 1 3 2.</_></rects>
      <tilted>0</tilted></_>
    <_>
      <rects>
        <_>
          9 9 3 3 -1.</_>
        <_>
          10 9 1 3 3.</_></rects>
      <tilted>0</tilted></_>
    <_>
      <rects>
        <_>
          9 9 6 5 -1.</_>
        <_>
          11 9 2 5 3.</_></rects>
      <tilted>0</tilted></_>
    <_>
      <rects>
        <_>
          9 9 6 6 -1.</_>
        <_>
          9 11 6 2 3.</_></rects>
      <tilted>0</tilted></_>
    <_>
      <rects>
        <_>
          9 10 8 3 -1.</_>
        <_>
          9 11 8 1 3.</_></rects>
      <tilted>0</tilted></_>
    <_>
      <rects>
        <_>
          9 10 10 2 -1.</_>
        <_>
          9 11 10 1 2.</_></rects>
      <tilted>0</tilted></_>
    <_>
      <rects>
        <_>
          9 13 4 4 -1.</_>
        <_>
          9 15 4 2 2.</_></rects>
      <tilted>0</tilted></_>
    <_>
      <rects>
        <_>
          10 2 3 15 -1.</_>
        <_>
          10 7 3 5 3.</_></rects>
      <tilted>0</tilted></_>
    <_>
      <rects>
        <_>
          10 4 3 12 -1.</_>
        <_>
          11 4 1 12 3.</_></rects>
      <tilted>0</tilted></_>
    <_>
      <rects>
        <_>
          10 7 2 6 -1.</_>
        <_>
          10 9 2 2 3.</_></rects>
      <tilted>0</tilted></_>
    <_>
      <rects>
        <_>
          10 7 3 9 -1.</_>
        <_>
          10 10 3 3 3.</_></rects>
      <tilted>0</tilted></_>
    <_>
      <rects>
        <_>
          10 8 4 6 -1.</_>
        <_>
          10 10 4 2 3.</_></rects>
      <tilted>0</tilted></_>
    <_>
      <rects>
        <_>
          10 11 2 2 -1.</_>
        <_>
          11 11 1 2 2.</_></rects>
      <tilted>0</tilted></_>
    <_>
      <rects>
        <_>
          10 11 2 7 -1.</_>
        <_>
          11 11 1 7 2.</_></rects>
      <tilted>0</tilted></_>
    <_>
      <rects>
        <_>
          10 11 5 4 -1.</_>
        <_>
          10 13 5 2 2.</_></rects>
      <tilted>0</tilted></_>
    <_>
      <rects>
        <_>
          10 13 6 2 -1.</_>
        <_>
          10 14 6 1 2.</_></rects>
      <tilted>0</tilted></_>
    <_>
      <rects>
        <_>
          11 4 2 8 -1.</_>
        <_>
          11 8 2 4 2.</_></rects>
      <tilted>0</tilted></_>
    <_>
      <rects>
        <_>
          11 5 2 8 -1.</_>
        <_>
          12 5 1 8 2.</_></rects>
      <tilted>0</tilted></_>
    <_>
      <rects>
        <_>
          11 6 2 7 -1.</_>
        <_>
          12 6 1 7 2.</_></rects>
      <tilted>0</tilted></_>
    <_>
      <rects>
        <_>
          11 8 6 6 -1.</_>
        <_>
          11 10 6 2 3.</_></rects>
      <tilted>0</tilted></_>
    <_>
      <rects>
        <_>
          11 11 2 2 -1.</_>
        <_>
          12 11 1 2 2.</_></rects>
      <tilted>0</tilted></_>
    <_>
      <rects>
        <_>
          11 11 4 3 -1.</_>
        <_>
          11 12 4 1 3.</_></rects>
      <tilted>0</tilted></_>
    <_>
      <rects>
        <_>
          11 12 3 2 -1.</_>
        <_>
          11 13 3 1 2.</_></rects>
      <tilted>0</tilted></_>
    <_>
      <rects>
        <_>
          12 6 5 6 -1.</_>
        <_>
          12 9 5 3 2.</_></rects>
      <tilted>0</tilted></_>
    <_>
      <rects>
        <_>
          14 5 6 10 -1.</_>
        <_>
          16 5 2 10 3.</_></rects>
      <tilted>0</tilted></_>
    <_>
      <rects>
        <_>
          14 6 3 8 -1.</_>
        <_>
          14 10 3 4 2.</_></rects>
      <tilted>0</tilted></_>
    <_>
      <rects>
        <_>
          15 12 4 3 -1.</_>
        <_>
          17 12 2 3 2.</_></rects>
      <tilted>0</tilted></_>
    <_>
      <rects>
        <_>
          16 9 3 2 -1.</_>
        <_>
          17 9 1 2 3.</_></rects>
      <tilted>0</tilted></_>
    <_>
      <rects>
        <_>
          18 5 2 11 -1.</_>
        <_>
          19 5 1 11 2.</_></rects>
      <tilted>0</tilted></_></features></cascade>
</opencv_storage>
